<?xml version="1.0"?>
<opencv_storage>
<cascade>
  <stageType>BOOST</stageType>
  <featureType>HAAR</featureType>
  <height>20</height>
  <width>20</width>
  <stageParams>
    <boostType>GAB</boostType>
    <minHitRate>9.9500000476837158e-01</minHitRate>
    <maxFalseAlarm>5.0000000000000000e-01</maxFalseAlarm>
    <weightTrimRate>9.4999999999999996e-01</weightTrimRate>
    <maxDepth>1</maxDepth>
    <maxWeakCount>100</maxWeakCount></stageParams>
  <featureParams>
    <maxCatCount>0</maxCatCount>
    <featSize>1</featSize>
    <mode>BASIC</mode></featureParams>
  <stageNum>17</stageNum>
  <stages>
    <!-- stage 0 -->
    <_>
      <maxWeakCount>3</maxWeakCount>
      <stageThreshold>-7.7008396387100220e-01</stageThreshold>
      <weakClassifiers>
        <_>
          <internalNodes>
            0 -1 24 3.0001796782016754e-02</internalNodes>
          <leafValues>
            -8.9125293493270874e-01 7.9035639762878418e-01</leafValues></_>
        <_>
          <internalNodes>
            0 -1 57 9.1895628720521927e-03</internalNodes>
          <leafValues>
            -7.6229876279830933e-01 7.1691316366195679e-01</leafValues></_>
        <_>
          <internalNodes>
            0 -1 5 1.3521558046340942e-01</internalNodes>
          <leafValues>
            -6.5863454341888428e-01 8.8346773386001587e-01</leafValues></_></weakClassifiers></_>
    <!-- stage 1 -->
    <_>
      <maxWeakCount>4</maxWeakCount>
      <stageThreshold>-5.5203717947006226e-01</stageThreshold>
      <weakClassifiers>
        <_>
          <internalNodes>
            0 -1 30 -3.6065034568309784e-02</internalNodes>
          <leafValues>
            7.3814898729324341e-01 -7.1553611755371094e-01</leafValues></_>
        <_>
          <internalNodes>
            0 -1 58 7.7475430443882942e-03</internalNodes>
          <leafValues>
            -7.7296590805053711e-01 5.2739244699478149e-01</leafValues></_>
        <_>
          <internalNodes>
            0 -1 96 2.2137798368930817e-02</internalNodes>
          <leafValues>
            -8.8659954071044922e-01 4.2164495587348938e-01</leafValues></_>
        <_>
          <internalNodes>
            0 -1 48 1.6322206705808640e-02</internalNodes>
          <leafValues>
            -6.5727984905242920e-01 5.2270597219467163e-01</leafValues></_></weakClassifiers></_>
    <!-- stage 2 -->
    <_>
      <maxWeakCount>5</maxWeakCount>
      <stageThreshold>-7.9953867197036743e-01</stageThreshold>
      <weakClassifiers>
        <_>
          <internalNodes>
            0 -1 39 1.3802338391542435e-02</internalNodes>
          <leafValues>
            -7.3563218116760254e-01 4.6376812458038330e-01</leafValues></_>
        <_>
          <internalNodes>
            0 -1 93 1.7710857093334198e-02</internalNodes>
          <leafValues>
            -6.8771630525588989e-01 4.9581369757652283e-01</leafValues></_>
        <_>
          <internalNodes>
            0 -1 8 1.1734619736671448e-02</internalNodes>
          <leafValues>
            -6.4057755470275879e-01 4.8555889725685120e-01</leafValues></_>
        <_>
          <internalNodes>
            0 -1 13 4.7352105379104614e-02</internalNodes>
          <leafValues>
            -3.8215368986129761e-01 7.1106177568435669e-01</leafValues></_>
        <_>
          <internalNodes>
            0 -1 75 -3.2177963294088840e-03</internalNodes>
          <leafValues>
            5.6548303365707397e-01 -5.7281088829040527e-01</leafValues></_></weakClassifiers></_>
    <!-- stage 3 -->
    <_>
      <maxWeakCount>6</maxWeakCount>
      <stageThreshold>-1.3679262399673462e+00</stageThreshold>
      <weakClassifiers>
        <_>
          <internalNodes>
            0 -1 6 -3.1525347381830215e-02</internalNodes>
          <leafValues>
            5.2915763854980469e-01 -5.6064075231552124e-01</leafValues></_>
        <_>
          <internalNodes>
            0 -1 103 1.5063134022057056e-02</internalNodes>
          <leafValues>
            -8.2731205224990845e-01 3.5865911841392517e-01</leafValues></_>
        <_>
          <internalNodes>
            0 -1 38 -1.7889596521854401e-02</internalNodes>
          <leafValues>
            4.6969363093376160e-01 -5.7381039857864380e-01</leafValues></_>
        <_>
          <internalNodes>
            0 -1 7 2.6259893551468849e-02</internalNodes>
          <leafValues>
            -4.8135700821876526e-01 5.7859933376312256e-01</leafValues></_>
        <_>
          <internalNodes>
            0 -1 52 -6.9846659898757935e-03</internalNodes>
          <leafValues>
            3.4858357906341553e-01 -7.2021907567977905e-01</leafValues></_>
        <_>
          <internalNodes>
            0 -1 92 -1.2989843264222145e-02</internalNodes>
          <leafValues>
            5.2125149965286255e-01 -4.5936080813407898e-01</leafValues></_></weakClassifiers></_>
    <!-- stage 4 -->
    <_>
      <maxWeakCount>6</maxWeakCount>
      <stageThreshold>-1.6509468555450439e+00</stageThreshold>
      <weakClassifiers>
        <_>
          <internalNodes>
            0 -1 100 -1.0806128382682800e-02</internalNodes>
          <leafValues>
            5.2572709321975708e-01 -5.1876378059387207e-01</leafValues></_>
        <_>
          <internalNodes>
            0 -1 60 6.1981277540326118e-03</internalNodes>
          <leafValues>
            -5.9243255853652954e-01 4.8380240797996521e-01</leafValues></_>
        <_>
          <internalNodes>
            0 -1 25 -2.2971378639340401e-03</internalNodes>
          <leafValues>
            3.2044860720634460e-01 -7.4182194471359253e-01</leafValues></_>
        <_>
          <internalNodes>
            0 -1 50 -4.1637785732746124e-02</internalNodes>
          <leafValues>
            3.8637915253639221e-01 -6.2154871225357056e-01</leafValues></_>
        <_>
          <internalNodes>
            0 -1 109 -1.5353318303823471e-02</internalNodes>
          <leafValues>
            5.9333580732345581e-01 -4.7683605551719666e-01</leafValues></_>
        <_>
          <internalNodes>
            0 -1 31 3.6515262909233570e-03</internalNodes>
          <leafValues>
            -8.4600412845611572e-01 2.2422125935554504e-01</leafValues></_></weakClassifiers></_>
    <!-- stage 5 -->
    <_>
      <maxWeakCount>7</maxWeakCount>
      <stageThreshold>-8.3271920680999756e-01</stageThreshold>
      <weakClassifiers>
        <_>
          <internalNodes>
            0 -1 67 3.7972698919475079e-03</internalNodes>
          <leafValues>
            3.3333334326744080e-01 -7.6556777954101562e-01</leafValues></_>
        <_>
          <internalNodes>
            0 -1 102 1.0638421401381493e-02</internalNodes>
          <leafValues>
            -7.1769529581069946e-01 2.9301086068153381e-01</leafValues></_>
        <_>
          <internalNodes>
            0 -1 1 9.2462450265884399e-02</internalNodes>
          <leafValues>
            -3.5796999931335449e-01 6.3764804601669312e-01</leafValues></_>
        <_>
          <internalNodes>
            0 -1 71 5.4371915757656097e-03</internalNodes>
          <leafValues>
            -3.0705219507217407e-01 6.3603055477142334e-01</leafValues></_>
        <_>
          <internalNodes>
            0 -1 113 -2.0178366452455521e-02</internalNodes>
          <leafValues>
            6.1210864782333374e-01 -3.3110457658767700e-01</leafValues></_>
        <_>
          <internalNodes>
            0 -1 70 2.3489068262279034e-03</internalNodes>
          <leafValues>
            -5.5501568317413330e-01 4.1013139486312866e-01</leafValues></_>
        <_>
          <internalNodes>
            0 -1 23 2.2516690194606781e-02</internalNodes>
          <leafValues>
            -9.3786114454269409e-01 2.6298549771308899e-01</leafValues></_></weakClassifiers></_>
    <!-- stage 6 -->
    <_>
      <maxWeakCount>6</maxWeakCount>
      <stageThreshold>-1.4430620670318604e+00</stageThreshold>
      <weakClassifiers>
        <_>
          <internalNodes>
            0 -1 85 -3.6586835980415344e-02</internalNodes>
          <leafValues>
            4.6450304985046387e-01 -5.6265354156494141e-01</leafValues></_>
        <_>
          <internalNodes>
            0 -1 104 -7.7221812680363655e-03</internalNodes>
          <leafValues>
            3.5810691118240356e-01 -5.8724671602249146e-01</leafValues></_>
        <_>
          <internalNodes>
            0 -1 68 6.7099124193191528e-02</internalNodes>
          <leafValues>
            2.1527238190174103e-01 -9.3977558612823486e-01</leafValues></_>
        <_>
          <internalNodes>
            0 -1 27 4.6221138909459114e-03</internalNodes>
          <leafValues>
            -3.7556153535842896e-01 5.7839661836624146e-01</leafValues></_>
        <_>
          <internalNodes>
            0 -1 82 -1.6370522789657116e-03</internalNodes>
          <leafValues>
            3.2788470387458801e-01 -6.5588337182998657e-01</leafValues></_>
        <_>
          <internalNodes>
            0 -1 37 -3.9869174361228943e-02</internalNodes>
          <leafValues>
            4.5034632086753845e-01 -5.0414592027664185e-01</leafValues></_></weakClassifiers></_>
    <!-- stage 7 -->
    <_>
      <maxWeakCount>9</maxWeakCount>
      <stageThreshold>-9.1214799880981445e-01</stageThreshold>
      <weakClassifiers>
        <_>
          <internalNodes>
            0 -1 15 -1.4030026271939278e-02</internalNodes>
          <leafValues>
            3.4125638008117676e-01 -6.4630222320556641e-01</leafValues></_>
        <_>
          <internalNodes>
            0 -1 3 5.7566683739423752e-02</internalNodes>
          <leafValues>
            -3.7757775187492371e-01 5.5794727802276611e-01</leafValues></_>
        <_>
          <internalNodes>
            0 -1 41 4.4155083596706390e-03</internalNodes>
          <leafValues>
            -6.9240117073059082e-01 3.4922572970390320e-01</leafValues></_>
        <_>
          <internalNodes>
            0 -1 84 1.1723993346095085e-02</internalNodes>
          <leafValues>
            -6.1516630649566650e-01 3.2543894648551941e-01</leafValues></_>
        <_>
          <internalNodes>
            0 -1 47 1.9587190821766853e-02</internalNodes>
          <leafValues>
            -3.5912886261940002e-01 4.9756732583045959e-01</leafValues></_>
        <_>
          <internalNodes>
            0 -1 53 1.0446539148688316e-02</internalNodes>
          <leafValues>
            -7.8325682878494263e-01 2.0262072980403900e-01</leafValues></_>
        <_>
          <internalNodes>
            0 -1 32 -1.7204314935952425e-03</internalNodes>
          <leafValues>
            2.9384627938270569e-01 -5.2280831336975098e-01</leafValues></_>
        <_>
          <internalNodes>
            0 -1 42 2.4107482749968767e-04</internalNodes>
          <leafValues>
            -8.4413433074951172e-01 1.8747696280479431e-01</leafValues></_>
        <_>
          <internalNodes>
            0 -1 59 -2.7837808011099696e-04</internalNodes>
          <leafValues>
            2.2777257859706879e-01 -6.6086637973785400e-01</leafValues></_></weakClassifiers></_>
    <!-- stage 8 -->
    <_>
      <maxWeakCount>7</maxWeakCount>
      <stageThreshold>-6.4230602979660034e-01</stageThreshold>
      <weakClassifiers>
        <_>
          <internalNodes>
            0 -1 94 -1.4366221427917480e-01</internalNodes>
          <leafValues>
            5.9006214141845703e-01 -3.2871973514556885e-01</leafValues></_>
        <_>
          <internalNodes>
            0 -1 83 1.8127676099538803e-02</internalNodes>
          <leafValues>
            -5.5468732118606567e-01 3.5608544945716858e-01</leafValues></_>
        <_>
          <internalNodes>
            0 -1 33 3.8834288716316223e-03</internalNodes>
          <leafValues>
            -4.0759840607643127e-01 4.4597637653350830e-01</leafValues></_>
        <_>
          <internalNodes>
            0 -1 56 1.0301694273948669e-02</internalNodes>
          <leafValues>
            1.9975882768630981e-01 -8.4010446071624756e-01</leafValues></_>
        <_>
          <internalNodes>
            0 -1 101 4.4061406515538692e-03</internalNodes>
          <leafValues>
            -8.1096577644348145e-01 2.0709133148193359e-01</leafValues></_>
        <_>
          <internalNodes>
            0 -1 70 2.7330322191119194e-03</internalNodes>
          <leafValues>
            -5.4868048429489136e-01 2.9516622424125671e-01</leafValues></_>
        <_>
          <internalNodes>
            0 -1 55 -3.3077043481171131e-03</internalNodes>
          <leafValues>
            -9.5292341709136963e-01 1.3297154009342194e-01</leafValues></_></weakClassifiers></_>
    <!-- stage 9 -->
    <_>
      <maxWeakCount>8</maxWeakCount>
      <stageThreshold>-1.2382682561874390e+00</stageThreshold>
      <weakClassifiers>
        <_>
          <internalNodes>
            0 -1 0 6.6423695534467697e-03</internalNodes>
          <leafValues>
            -7.5845408439636230e-01 2.2655121982097626e-01</leafValues></_>
        <_>
          <internalNodes>
            0 -1 112 -3.8264610338956118e-04</internalNodes>
          <leafValues>
            3.3077439665794373e-01 -4.8508185148239136e-01</leafValues></_>
        <_>
          <internalNodes>
            0 -1 16 -1.0008770972490311e-02</internalNodes>
          <leafValues>
            3.0740648508071899e-01 -6.5742254257202148e-01</leafValues></_>
        <_>
          <internalNodes>
            0 -1 62 5.1459637470543385e-03</internalNodes>
          <leafValues>
            -3.5653120279312134e-01 5.6735020875930786e-01</leafValues></_>
        <_>
          <internalNodes>
            0 -1 18 4.8645185306668282e-03</internalNodes>
          <leafValues>
            -4.9050188064575195e-01 3.6632025241851807e-01</leafValues></_>
        <_>
          <internalNodes>
            0 -1 76 -6.3971038907766342e-03</internalNodes>
          <leafValues>
            6.4773589372634888e-01 -2.6966872811317444e-01</leafValues></_>
        <_>
          <internalNodes>
            0 -1 64 -4.8326812684535980e-03</internalNodes>
          <leafValues>
            -9.7507053613662720e-01 2.1190616488456726e-01</leafValues></_>
        <_>
          <internalNodes>
            0 -1 114 -1.8621662631630898e-02</internalNodes>
          <leafValues>
            4.7052693367004395e-01 -3.4140080213546753e-01</leafValues></_></weakClassifiers></_>
    <!-- stage 10 -->
    <_>
      <maxWeakCount>9</maxWeakCount>
      <stageThreshold>-9.9766725301742554e-01</stageThreshold>
      <weakClassifiers>
        <_>
          <internalNodes>
            0 -1 79 -9.6253111958503723e-02</internalNodes>
          <leafValues>
            5.3107345104217529e-01 -3.4432235360145569e-01</leafValues></_>
        <_>
          <internalNodes>
            0 -1 17 1.6012054402381182e-03</internalNodes>
          <leafValues>
            -6.5360510349273682e-01 2.6560544967651367e-01</leafValues></_>
        <_>
          <internalNodes>
            0 -1 73 -1.5332696959376335e-02</internalNodes>
          <leafValues>
            5.1050323247909546e-01 -3.3790180087089539e-01</leafValues></_>
        <_>
          <internalNodes>
            0 -1 34 2.7455158531665802e-02</internalNodes>
          <leafValues>
            -7.0494234561920166e-01 3.1728935241699219e-01</leafValues></_>
        <_>
          <internalNodes>
            0 -1 35 -6.3066935399547219e-04</internalNodes>
          <leafValues>
            -7.8737461566925049e-01 1.0015623271465302e-01</leafValues></_>
        <_>
          <internalNodes>
            0 -1 36 3.5808249376714230e-03</internalNodes>
          <leafValues>
            1.8469223380088806e-01 -8.4331262111663818e-01</leafValues></_>
        <_>
          <internalNodes>
            0 -1 81 -3.9673643186688423e-04</internalNodes>
          <leafValues>
            2.5243216753005981e-01 -4.9109449982643127e-01</leafValues></_>
        <_>
          <internalNodes>
            0 -1 2 1.1670117825269699e-01</internalNodes>
          <leafValues>
            1.7937244474887848e-01 -8.7005984783172607e-01</leafValues></_>
        <_>
          <internalNodes>
            0 -1 97 1.1318901553750038e-02</internalNodes>
          <leafValues>
            -6.6067516803741455e-01 1.9175040721893311e-01</leafValues></_></weakClassifiers></_>
    <!-- stage 11 -->
    <_>
      <maxWeakCount>8</maxWeakCount>
      <stageThreshold>-9.2288070917129517e-01</stageThreshold>
      <weakClassifiers>
        <_>
          <internalNodes>
            0 -1 20 1.7815481871366501e-02</internalNodes>
          <leafValues>
            -4.4522145390510559e-01 4.0552017092704773e-01</leafValues></_>
        <_>
          <internalNodes>
            0 -1 87 1.6103895381093025e-02</internalNodes>
          <leafValues>
            -7.1526551246643066e-01 2.7664071321487427e-01</leafValues></_>
        <_>
          <internalNodes>
            0 -1 78 -3.8353875279426575e-03</internalNodes>
          <leafValues>
            -8.8372611999511719e-01 1.2700082361698151e-01</leafValues></_>
        <_>
          <internalNodes>
            0 -1 80 -1.3353195972740650e-03</internalNodes>
          <leafValues>
            2.3368893563747406e-01 -6.7921489477157593e-01</leafValues></_>
        <_>
          <internalNodes>
            0 -1 1 9.2914760112762451e-02</internalNodes>
          <leafValues>
            -3.4143510460853577e-01 4.6695610880851746e-01</leafValues></_>
        <_>
          <internalNodes>
            0 -1 10 6.4731590449810028e-02</internalNodes>
          <leafValues>
            -6.8948042392730713e-01 2.1619442105293274e-01</leafValues></_>
        <_>
          <internalNodes>
            0 -1 91 -3.2967695733532310e-04</internalNodes>
          <leafValues>
            3.9213967323303223e-01 -3.7496331334114075e-01</leafValues></_>
        <_>
          <internalNodes>
            0 -1 90 -1.4267390361055732e-03</internalNodes>
          <leafValues>
            4.7074607014656067e-01 -3.2782027125358582e-01</leafValues></_></weakClassifiers></_>
    <!-- stage 12 -->
    <_>
      <maxWeakCount>8</maxWeakCount>
      <stageThreshold>-1.2077143192291260e+00</stageThreshold>
      <weakClassifiers>
        <_>
          <internalNodes>
            0 -1 9 1.2485329993069172e-02</internalNodes>
          <leafValues>
            -4.3203884363174438e-01 3.6475411057472229e-01</leafValues></_>
        <_>
          <internalNodes>
            0 -1 63 2.9664072208106518e-03</internalNodes>
          <leafValues>
            -4.9138903617858887e-01 3.3718794584274292e-01</leafValues></_>
        <_>
          <internalNodes>
            0 -1 107 -1.0116001963615417e-01</internalNodes>
          <leafValues>
            6.0123592615127563e-01 -2.9628062248229980e-01</leafValues></_>
        <_>
          <internalNodes>
            0 -1 43 3.2329885289072990e-03</internalNodes>
          <leafValues>
            -7.4237495660781860e-01 2.2063876688480377e-01</leafValues></_>
        <_>
          <internalNodes>
            0 -1 40 -6.0778185725212097e-03</internalNodes>
          <leafValues>
            2.2610656917095184e-01 -6.7246896028518677e-01</leafValues></_>
        <_>
          <internalNodes>
            0 -1 61 -1.1553266085684299e-03</internalNodes>
          <leafValues>
            -7.8675788640975952e-01 1.4776307344436646e-01</leafValues></_>
        <_>
          <internalNodes>
            0 -1 49 -2.5278208777308464e-03</internalNodes>
          <leafValues>
            -8.6380851268768311e-01 1.6509926319122314e-01</leafValues></_>
        <_>
          <internalNodes>
            0 -1 69 1.2853658199310303e-01</internalNodes>
          <leafValues>
            1.5096205472946167e-01 -7.9402625560760498e-01</leafValues></_></weakClassifiers></_>
    <!-- stage 13 -->
    <_>
      <maxWeakCount>9</maxWeakCount>
      <stageThreshold>-7.0821368694305420e-01</stageThreshold>
      <weakClassifiers>
        <_>
          <internalNodes>
            0 -1 12 2.8804678469896317e-02</internalNodes>
          <leafValues>
            -2.3430322110652924e-01 6.1943322420120239e-01</leafValues></_>
        <_>
          <internalNodes>
            0 -1 45 -2.2599303629249334e-03</internalNodes>
          <leafValues>
            3.9662033319473267e-01 -4.3636623024940491e-01</leafValues></_>
        <_>
          <internalNodes>
            0 -1 108 3.8576209917664528e-03</internalNodes>
          <leafValues>
            -6.7257708311080933e-01 2.0490629971027374e-01</leafValues></_>
        <_>
          <internalNodes>
            0 -1 14 6.9391757249832153e-02</internalNodes>
          <leafValues>
            -3.0693867802619934e-01 4.8766079545021057e-01</leafValues></_>
        <_>
          <internalNodes>
            0 -1 51 -3.6063604056835175e-03</internalNodes>
          <leafValues>
            2.2338800132274628e-01 -6.0976397991180420e-01</leafValues></_>
        <_>
          <internalNodes>
            0 -1 66 1.1304672807455063e-02</internalNodes>
          <leafValues>
            1.4763085544109344e-01 -8.6655962467193604e-01</leafValues></_>
        <_>
          <internalNodes>
            0 -1 86 -1.7283923225477338e-03</internalNodes>
          <leafValues>
            2.5092750787734985e-01 -4.9142891168594360e-01</leafValues></_>
        <_>
          <internalNodes>
            0 -1 46 -1.2884767726063728e-02</internalNodes>
          <leafValues>
            5.4318773746490479e-01 -2.5820824503898621e-01</leafValues></_>
        <_>
          <internalNodes>
            0 -1 72 3.0146366916596889e-03</internalNodes>
          <leafValues>
            -2.2316257655620575e-01 6.1226934194564819e-01</leafValues></_></weakClassifiers></_>
    <!-- stage 14 -->
    <_>
      <maxWeakCount>10</maxWeakCount>
      <stageThreshold>-1.1160566806793213e+00</stageThreshold>
      <weakClassifiers>
        <_>
          <internalNodes>
            0 -1 28 1.2500749435275793e-03</internalNodes>
          <leafValues>
            -5.3230768442153931e-01 3.0086955428123474e-01</leafValues></_>
        <_>
          <internalNodes>
            0 -1 105 -2.5386775378137827e-03</internalNodes>
          <leafValues>
            4.3012845516204834e-01 -3.7996593117713928e-01</leafValues></_>
        <_>
          <internalNodes>
            0 -1 77 1.3677417300641537e-03</internalNodes>
          <leafValues>
            -3.3990821242332458e-01 4.3453246355056763e-01</leafValues></_>
        <_>
          <internalNodes>
            0 -1 11 3.0249457340687513e-03</internalNodes>
          <leafValues>
            -6.6491645574569702e-01 2.9768511652946472e-01</leafValues></_>
        <_>
          <internalNodes>
            0 -1 95 1.6703285276889801e-02</internalNodes>
          <leafValues>
            -5.3424185514450073e-01 2.6894629001617432e-01</leafValues></_>
        <_>
          <internalNodes>
            0 -1 88 5.7645612396299839e-03</internalNodes>
          <leafValues>
            1.7571692168712616e-01 -7.7313238382339478e-01</leafValues></_>
        <_>
          <internalNodes>
            0 -1 89 4.1212423820979893e-04</internalNodes>
          <leafValues>
            -3.8560500741004944e-01 4.1417667269706726e-01</leafValues></_>
        <_>
          <internalNodes>
            0 -1 44 -3.4460738301277161e-02</internalNodes>
          <leafValues>
            -7.7219021320343018e-01 2.5806620717048645e-01</leafValues></_>
        <_>
          <internalNodes>
            0 -1 54 -3.1831759959459305e-02</internalNodes>
          <leafValues>
            -8.7624329328536987e-01 1.6074544191360474e-01</leafValues></_>
        <_>
          <internalNodes>
            0 -1 110 -6.9469050504267216e-04</internalNodes>
          <leafValues>
            3.2972112298011780e-01 -4.4786247611045837e-01</leafValues></_></weakClassifiers></_>
    <!-- stage 15 -->
    <_>
      <maxWeakCount>6</maxWeakCount>
      <stageThreshold>-4.7073054313659668e-01</stageThreshold>
      <weakClassifiers>
        <_>
          <internalNodes>
            0 -1 21 7.1580573916435242e-02</internalNodes>
          <leafValues>
            -2.3661971092224121e-01 8.8421052694320679e-01</leafValues></_>
        <_>
          <internalNodes>
            0 -1 19 -1.0052709840238094e-03</internalNodes>
          <leafValues>
            3.6891126632690430e-01 -6.0099750757217407e-01</leafValues></_>
        <_>
          <internalNodes>
            0 -1 98 2.8832221869379282e-03</internalNodes>
          <leafValues>
            3.0240803956985474e-01 -6.6932612657546997e-01</leafValues></_>
        <_>
          <internalNodes>
            0 -1 111 -3.2872713636606932e-03</internalNodes>
          <leafValues>
            4.2134639620780945e-01 -4.8813924193382263e-01</leafValues></_>
        <_>
          <internalNodes>
            0 -1 22 1.7587866634130478e-02</internalNodes>
          <leafValues>
            3.9837831258773804e-01 -6.9476205110549927e-01</leafValues></_>
        <_>
          <internalNodes>
            0 -1 29 3.9238605648279190e-02</internalNodes>
          <leafValues>
            3.3971965312957764e-01 -6.8912672996520996e-01</leafValues></_></weakClassifiers></_>
    <!-- stage 16 -->
    <_>
      <maxWeakCount>6</maxWeakCount>
      <stageThreshold>-8.2345420122146606e-01</stageThreshold>
      <weakClassifiers>
        <_>
          <internalNodes>
            0 -1 26 7.7411090023815632e-04</internalNodes>
          <leafValues>
            -4.7591522336006165e-01 6.4829397201538086e-01</leafValues></_>
        <_>
          <internalNodes>
            0 -1 99 -5.2069593220949173e-04</internalNodes>
          <leafValues>
            6.9460278749465942e-01 -4.7114706039428711e-01</leafValues></_>
        <_>
          <internalNodes>
            0 -1 65 -2.9595016967505217e-03</internalNodes>
          <leafValues>
            6.0431867837905884e-01 -4.7692283987998962e-01</leafValues></_>
        <_>
          <internalNodes>
            0 -1 106 -4.2883817513938993e-05</internalNodes>
          <leafValues>
            -5.7273185253143311e-01 5.6743067502975464e-01</leafValues></_>
        <_>
          <internalNodes>
            0 -1 74 -3.0986469937488437e-05</internalNodes>
          <leafValues>
            5.7161080837249756e-01 -5.4280447959899902e-01</leafValues></_>
        <_>
          <internalNodes>
            0 -1 4 -9.5589959528297186e-05</internalNodes>
          <leafValues>
            8.0178534984588623e-01 -4.7958958148956299e-01</leafValues></_></weakClassifiers></_></stages>
  <features>
    <_>
      <rects>
        <_>
          0 0 20 9 -1.</_>
        <_>
          0 3 20 3 3.</_></rects>
      <tilted>0</tilted></_>
    <_>
      <rects>
        <_>
          0 2 6 15 -1.</_>
        <_>
          3 2 3 15 2.</_></rects>
      <tilted>0</tilted></_>
    <_>
      <rects>
        <_>
          0 8 17 9 -1.</_>
        <_>
          0 11 17 3 3.</_></rects>
      <tilted>0</tilted></_>
    <_>
      <rects>
        <_>
          0 11 8 9 -1.</_>
        <_>
          4 11 4 9 2.</_></rects>
      <tilted>0</tilted></_>
    <_>
      <rects>
        <_>
          0 13 4 4 -1.</_>
        <_>
          0 15 4 2 2.</_></rects>
      <tilted>0</tilted></_>
    <_>
      <rects>
        <_>
          1 0 18 5 -1.</_>
        <_>
          7 0 6 5 3.</_></rects>
      <tilted>0</tilted></_>
    <_>
      <rects>
        <_>
          1 1 8 8 -1.</_>
        <_>
          1 1 4 4 2.</_>
        <_>
          5 5 4 4 2.</_></rects>
      <tilted>0</tilted></_>
    <_>
      <rects>
        <_>
          1 2 4 16 -1.</_>
        <_>
          3 2 2 16 2.</_></rects>
      <tilted>0</tilted></_>
    <_>
      <rects>
        <_>
          1 2 6 3 -1.</_>
        <_>
          4 2 3 3 2.</_></rects>
      <tilted>0</tilted></_>
    <_>
      <rects>
        <_>
          1 3 6 2 -1.</_>
        <_>
          4 3 3 2 2.</_></rects>
      <tilted>0</tilted></_>
    <_>
      <rects>
        <_>
          1 5 12 12 -1.</_>
        <_>
          1 9 12 4 3.</_></rects>
      <tilted>0</tilted></_>
    <_>
      <rects>
        <_>
          1 8 9 2 -1.</_>
        <_>
          1 9 9 1 2.</_></rects>
      <tilted>0</tilted></_>
    <_>
      <rects>
        <_>
          1 16 8 3 -1.</_>
        <_>
          5 16 4 3 2.</_></rects>
      <tilted>0</tilted></_>
    <_>
      <rects>
        <_>
          1 18 18 2 -1.</_>
        <_>
          7 18 6 2 3.</_></rects>
      <tilted>0</tilted></_>
    <_>
      <rects>
        <_>
          2 0 18 2 -1.</_>
        <_>
          8 0 6 2 3.</_></rects>
      <tilted>0</tilted></_>
    <_>
      <rects>
        <_>
          2 1 6 8 -1.</_>
        <_>
          2 1 3 4 2.</_>
        <_>
          5 5 3 4 2.</_></rects>
      <tilted>0</tilted></_>
    <_>
      <rects>
        <_>
          2 2 6 8 -1.</_>
        <_>
          2 2 3 4 2.</_>
        <_>
          5 6 3 4 2.</_></rects>
      <tilted>0</tilted></_>
    <_>
      <rects>
        <_>
          2 7 4 4 -1.</_>
        <_>
          2 7 2 2 2.</_>
        <_>
          4 9 2 2 2.</_></rects>
      <tilted>0</tilted></_>
    <_>
      <rects>
        <_>
          2 10 6 3 -1.</_>
        <_>
          4 10 2 3 3.</_></rects>
      <tilted>0</tilted></_>
    <_>
      <rects>
        <_>
          2 10 4 4 -1.</_>
        <_>
          2 12 4 2 2.</_></rects>
      <tilted>0</tilted></_>
    <_>
      <rects>
        <_>
          2 18 15 2 -1.</_>
        <_>
          7 18 5 2 3.</_></rects>
      <tilted>0</tilted></_>
    <_>
      <rects>
        <_>
          2 18 18 2 -1.</_>
        <_>
          8 18 6 2 3.</_></rects>
      <tilted>0</tilted></_>
    <_>
      <rects>
        <_>
          3 4 12 14 -1.</_>
        <_>
          3 4 6 7 2.</_>
        <_>
          9 11 6 7 2.</_></rects>
      <tilted>0</tilted></_>
    <_>
      <rects>
        <_>
          3 6 8 9 -1.</_>
        <_>
          3 9 8 3 3.</_></rects>
      <tilted>0</tilted></_>
    <_>
      <rects>
        <_>
          3 7 13 4 -1.</_>
        <_>
          3 9 13 2 2.</_></rects>
      <tilted>0</tilted></_>
    <_>
      <rects>
        <_>
          3 10 6 4 -1.</_>
        <_>
          3 12 6 2 2.</_></rects>
      <tilted>0</tilted></_>
    <_>
      <rects>
        <_>
          3 16 6 1 -1.</_>
        <_>
          5 16 2 1 3.</_></rects>
      <tilted>0</tilted></_>
    <_>
      <rects>
        <_>
          3 19 6 1 -1.</_>
        <_>
          6 19 3 1 2.</_></rects>
      <tilted>0</tilted></_>
    <_>
      <rects>
        <_>
          4 0 2 4 -1.</_>
        <_>
          5 0 1 4 2.</_></rects>
      <tilted>0</tilted></_>
    <_>
      <rects>
        <_>
          4 1 6 16 -1.</_>
        <_>
          4 9 6 8 2.</_></rects>
      <tilted>0</tilted></_>
    <_>
      <rects>
        <_>
          4 4 11 4 -1.</_>
        <_>
          4 6 11 2 2.</_></rects>
      <tilted>0</tilted></_>
    <_>
      <rects>
        <_>
          4 6 4 8 -1.</_>
        <_>
          4 10 4 4 2.</_></rects>
      <tilted>0</tilted></_>
    <_>
      <rects>
        <_>
          4 12 12 2 -1.</_>
        <_>
          8 12 4 2 3.</_></rects>
      <tilted>0</tilted></_>
    <_>
      <rects>
        <_>
          4 15 4 4 -1.</_>
        <_>
          4 15 2 2 2.</_>
        <_>
          6 17 2 2 2.</_></rects>
      <tilted>0</tilted></_>
    <_>
      <rects>
        <_>
          5 0 9 11 -1.</_>
        <_>
          8 0 3 11 3.</_></rects>
      <tilted>0</tilted></_>
    <_>
      <rects>
        <_>
          5 3 3 1 -1.</_>
        <_>
          6 3 1 1 3.</_></rects>
      <tilted>0</tilted></_>
    <_>
      <rects>
        <_>
          5 3 3 3 -1.</_>
        <_>
          6 3 1 3 3.</_></rects>
      <tilted>0</tilted></_>
    <_>
      <rects>
        <_>
          5 4 9 4 -1.</_>
        <_>
          5 6 9 2 2.</_></rects>
      <tilted>0</tilted></_>
    <_>
      <rects>
        <_>
          5 5 6 10 -1.</_>
        <_>
          5 5 3 5 2.</_>
        <_>
          8 10 3 5 2.</_></rects>
      <tilted>0</tilted></_>
    <_>
      <rects>
        <_>
          5 6 2 9 -1.</_>
        <_>
          5 9 2 3 3.</_></rects>
      <tilted>0</tilted></_>
    <_>
      <rects>
        <_>
          5 6 6 8 -1.</_>
        <_>
          5 6 3 4 2.</_>
        <_>
          8 10 3 4 2.</_></rects>
      <tilted>0</tilted></_>
    <_>
      <rects>
        <_>
          5 7 6 2 -1.</_>
        <_>
          8 7 3 2 2.</_></rects>
      <tilted>0</tilted></_>
    <_>
      <rects>
        <_>
          5 7 7 6 -1.</_>
        <_>
          5 10 7 3 2.</_></rects>
      <tilted>0</tilted></_>
    <_>
      <rects>
        <_>
          5 7 13 2 -1.</_>
        <_>
          5 8 13 1 2.</_></rects>
      <tilted>0</tilted></_>
    <_>
      <rects>
        <_>
          5 8 10 10 -1.</_>
        <_>
          5 8 5 5 2.</_>
        <_>
          10 13 5 5 2.</_></rects>
      <tilted>0</tilted></_>
    <_>
      <rects>
        <_>
          5 10 4 3 -1.</_>
        <_>
          7 10 2 3 2.</_></rects>
      <tilted>0</tilted></_>
    <_>
      <rects>
        <_>
          5 14 9 3 -1.</_>
        <_>
          5 15 9 1 3.</_></rects>
      <tilted>0</tilted></_>
    <_>
      <rects>
        <_>
          5 18 12 2 -1.</_>
        <_>
          9 18 4 2 3.</_></rects>
      <tilted>0</tilted></_>
    <_>
      <rects>
        <_>
          6 1 7 6 -1.</_>
        <_>
          6 3 7 2 3.</_></rects>
      <tilted>0</tilted></_>
    <_>
      <rects>
        <_>
          6 2 3 3 -1.</_>
        <_>
          7 2 1 3 3.</_></rects>
      <tilted>0</tilted></_>
    <_>
      <rects>
        <_>
          6 3 9 6 -1.</_>
        <_>
          6 6 9 3 2.</_></rects>
      <tilted>0</tilted></_>
    <_>
      <rects>
        <_>
          6 6 6 3 -1.</_>
        <_>
          6 7 6 1 3.</_></rects>
      <tilted>0</tilted></_>
    <_>
      <rects>
        <_>
          6 6 12 3 -1.</_>
        <_>
          6 7 12 1 3.</_></rects>
      <tilted>0</tilted></_>
    <_>
      <rects>
        <_>
          6 6 13 4 -1.</_>
        <_>
          6 8 13 2 2.</_></rects>
      <tilted>0</tilted></_>
    <_>
      <rects>
        <_>
          6 8 2 10 -1.</_>
        <_>
          6 13 2 5 2.</_></rects>
      <tilted>0</tilted></_>
    <_>
      <rects>
        <_>
          7 3 3 3 -1.</_>
        <_>
          8 3 1 3 3.</_></rects>
      <tilted>0</tilted></_>
    <_>
      <rects>
        <_>
          7 4 6 16 -1.</_>
        <_>
          7 12 6 8 2.</_></rects>
      <tilted>0</tilted></_>
    <_>
      <rects>
        <_>
          7 5 6 3 -1.</_>
        <_>
          9 5 2 3 3.</_></rects>
      <tilted>0</tilted></_>
    <_>
      <rects>
        <_>
          7 5 6 4 -1.</_>
        <_>
          9 5 2 4 3.</_></rects>
      <tilted>0</tilted></_>
    <_>
      <rects>
        <_>
          7 6 8 3 -1.</_>
        <_>
          11 6 4 3 2.</_></rects>
      <tilted>0</tilted></_>
    <_>
      <rects>
        <_>
          7 7 6 1 -1.</_>
        <_>
          9 7 2 1 3.</_></rects>
      <tilted>0</tilted></_>
    <_>
      <rects>
        <_>
          7 9 8 2 -1.</_>
        <_>
          7 10 8 1 2.</_></rects>
      <tilted>0</tilted></_>
    <_>
      <rects>
        <_>
          7 13 5 3 -1.</_>
        <_>
          7 14 5 1 3.</_></rects>
      <tilted>0</tilted></_>
    <_>
      <rects>
        <_>
          8 1 2 8 -1.</_>
        <_>
          8 1 1 4 2.</_>
        <_>
          9 5 1 4 2.</_></rects>
      <tilted>0</tilted></_>
    <_>
      <rects>
        <_>
          8 1 3 6 -1.</_>
        <_>
          9 1 1 6 3.</_></rects>
      <tilted>0</tilted></_>
    <_>
      <rects>
        <_>
          8 2 2 18 -1.</_>
        <_>
          8 2 1 9 2.</_>
        <_>
          9 11 1 9 2.</_></rects>
      <tilted>0</tilted></_>
    <_>
      <rects>
        <_>
          8 3 6 2 -1.</_>
        <_>
          10 3 2 2 3.</_></rects>
      <tilted>0</tilted></_>
    <_>
      <rects>
        <_>
          8 3 4 14 -1.</_>
        <_>
          8 10 4 7 2.</_></rects>
      <tilted>0</tilted></_>
    <_>
      <rects>
        <_>
          8 4 7 12 -1.</_>
        <_>
          8 10 7 6 2.</_></rects>
      <tilted>0</tilted></_>
    <_>
      <rects>
        <_>
          8 4 12 10 -1.</_>
        <_>
          8 9 12 5 2.</_></rects>
      <tilted>0</tilted></_>
    <_>
      <rects>
        <_>
          8 6 2 3 -1.</_>
        <_>
          9 6 1 3 2.</_></rects>
      <tilted>0</tilted></_>
    <_>
      <rects>
        <_>
          8 13 4 3 -1.</_>
        <_>
          8 14 4 1 3.</_></rects>
      <tilted>0</tilted></_>
    <_>
      <rects>
        <_>
          8 14 2 3 -1.</_>
        <_>
          8 15 2 1 3.</_></rects>
      <tilted>0</tilted></_>
    <_>
      <rects>
        <_>
          8 15 12 4 -1.</_>
        <_>
          8 15 6 2 2.</_>
        <_>
          14 17 6 2 2.</_></rects>
      <tilted>0</tilted></_>
    <_>
      <rects>
        <_>
          9 5 1 3 -1.</_>
        <_>
          9 6 1 1 3.</_></rects>
      <tilted>0</tilted></_>
    <_>
      <rects>
        <_>
          9 7 4 1 -1.</_>
        <_>
          11 7 2 1 2.</_></rects>
      <tilted>0</tilted></_>
    <_>
      <rects>
        <_>
          9 11 2 3 -1.</_>
        <_>
          9 12 2 1 3.</_></rects>
      <tilted>0</tilted></_>
    <_>
      <rects>
        <_>
          9 16 1 4 -1.</_>
        <_>
          9 18 1 2 2.</_></rects>
      <tilted>0</tilted></_>
    <_>
      <rects>
        <_>
          10 0 3 5 -1.</_>
        <_>
          11 0 1 5 3.</_></rects>
      <tilted>0</tilted></_>
    <_>
      <rects>
        <_>
          10 0 10 5 -1.</_>
        <_>
          15 0 5 5 2.</_></rects>
      <tilted>0</tilted></_>
    <_>
      <rects>
        <_>
          10 4 2 4 -1.</_>
        <_>
          11 4 1 4 2.</_></rects>
      <tilted>0</tilted></_>
    <_>
      <rects>
        <_>
          10 5 1 3 -1.</_>
        <_>
          10 6 1 1 3.</_></rects>
      <tilted>0</tilted></_>
    <_>
      <rects>
        <_>
          10 5 2 3 -1.</_>
        <_>
          11 5 1 3 2.</_></rects>
      <tilted>0</tilted></_>
    <_>
      <rects>
        <_>
          11 0 6 10 -1.</_>
        <_>
          11 0 3 5 2.</_>
        <_>
          14 5 3 5 2.</_></rects>
      <tilted>0</tilted></_>
    <_>
      <rects>
        <_>
          11 0 4 9 -1.</_>
        <_>
          11 3 4 3 3.</_></rects>
      <tilted>0</tilted></_>
    <_>
      <rects>
        <_>
          11 0 8 5 -1.</_>
        <_>
          15 0 4 5 2.</_></rects>
      <tilted>0</tilted></_>
    <_>
      <rects>
        <_>
          11 2 2 6 -1.</_>
        <_>
          12 2 1 6 2.</_></rects>
      <tilted>0</tilted></_>
    <_>
      <rects>
        <_>
          11 3 8 6 -1.</_>
        <_>
          11 3 4 3 2.</_>
        <_>
          15 6 4 3 2.</_></rects>
      <tilted>0</tilted></_>
    <_>
      <rects>
        <_>
          11 7 1 8 -1.</_>
        <_>
          11 11 1 4 2.</_></rects>
      <tilted>0</tilted></_>
    <_>
      <rects>
        <_>
          11 12 2 1 -1.</_>
        <_>
          12 12 1 1 2.</_></rects>
      <tilted>0</tilted></_>
    <_>
      <rects>
        <_>
          11 12 4 2 -1.</_>
        <_>
          11 12 2 1 2.</_>
        <_>
          13 13 2 1 2.</_></rects>
      <tilted>0</tilted></_>
    <_>
      <rects>
        <_>
          11 13 2 2 -1.</_>
        <_>
          11 13 1 1 2.</_>
        <_>
          12 14 1 1 2.</_></rects>
      <tilted>0</tilted></_>
    <_>
      <rects>
        <_>
          11 14 6 6 -1.</_>
        <_>
          11 14 3 3 2.</_>
        <_>
          14 17 3 3 2.</_></rects>
      <tilted>0</tilted></_>
    <_>
      <rects>
        <_>
          12 1 6 8 -1.</_>
        <_>
          12 1 3 4 2.</_>
        <_>
          15 5 3 4 2.</_></rects>
      <tilted>0</tilted></_>
    <_>
      <rects>
        <_>
          12 1 8 17 -1.</_>
        <_>
          16 1 4 17 2.</_></rects>
      <tilted>0</tilted></_>
    <_>
      <rects>
        <_>
          12 2 6 6 -1.</_>
        <_>
          12 2 3 3 2.</_>
        <_>
          15 5 3 3 2.</_></rects>
      <tilted>0</tilted></_>
    <_>
      <rects>
        <_>
          12 4 4 15 -1.</_>
        <_>
          12 9 4 5 3.</_></rects>
      <tilted>0</tilted></_>
    <_>
      <rects>
        <_>
          12 6 4 8 -1.</_>
        <_>
          12 10 4 4 2.</_></rects>
      <tilted>0</tilted></_>
    <_>
      <rects>
        <_>
          12 11 5 3 -1.</_>
        <_>
          12 12 5 1 3.</_></rects>
      <tilted>0</tilted></_>
    <_>
      <rects>
        <_>
          12 16 4 2 -1.</_>
        <_>
          12 16 2 1 2.</_>
        <_>
          14 17 2 1 2.</_></rects>
      <tilted>0</tilted></_>
    <_>
      <rects>
        <_>
          13 3 6 2 -1.</_>
        <_>
          16 3 3 2 2.</_></rects>
      <tilted>0</tilted></_>
    <_>
      <rects>
        <_>
          13 5 1 8 -1.</_>
        <_>
          13 9 1 4 2.</_></rects>
      <tilted>0</tilted></_>
    <_>
      <rects>
        <_>
          13 6 2 6 -1.</_>
        <_>
          13 9 2 3 2.</_></rects>
      <tilted>0</tilted></_>
    <_>
      <rects>
        <_>
          13 6 5 9 -1.</_>
        <_>
          13 9 5 3 3.</_></rects>
      <tilted>0</tilted></_>
    <_>
      <rects>
        <_>
          13 7 6 4 -1.</_>
        <_>
          13 7 3 2 2.</_>
        <_>
          16 9 3 2 2.</_></rects>
      <tilted>0</tilted></_>
    <_>
      <rects>
        <_>
          13 17 4 2 -1.</_>
        <_>
          15 17 2 2 2.</_></rects>
      <tilted>0</tilted></_>
    <_>
      <rects>
        <_>
          14 0 3 12 -1.</_>
        <_>
          15 0 1 12 3.</_></rects>
      <tilted>0</tilted></_>
    <_>
      <rects>
        <_>
          14 2 6 13 -1.</_>
        <_>
          17 2 3 13 2.</_></rects>
      <tilted>0</tilted></_>
    <_>
      <rects>
        <_>
          14 7 3 6 -1.</_>
        <_>
          14 9 3 2 3.</_></rects>
      <tilted>0</tilted></_>
    <_>
      <rects>
        <_>
          14 10 6 3 -1.</_>
        <_>
          17 10 3 3 2.</_></rects>
      <tilted>0</tilted></_>
    <_>
      <rects>
        <_>
          15 2 2 1 -1.</_>
        <_>
          16 2 1 1 2.</_></rects>
      <tilted>0</tilted></_>
    <_>
      <rects>
        <_>
          15 6 2 8 -1.</_>
        <_>
          15 6 1 4 2.</_>
        <_>
          16 10 1 4 2.</_></rects>
      <tilted>0</tilted></_>
    <_>
      <rects>
        <_>
          15 11 2 1 -1.</_>
        <_>
          16 11 1 1 2.</_></rects>
      <tilted>0</tilted></_>
    <_>
      <rects>
        <_>
          16 3 4 7 -1.</_>
        <_>
          18 3 2 7 2.</_></rects>
      <tilted>0</tilted></_>
    <_>
      <rects>
        <_>
          16 5 4 6 -1.</_>
        <_>
          18 5 2 6 2.</_></rects>
      <tilted>0</tilted></_></features></cascade>
</opencv_storage>
