<?xml version="1.0"?>
<opencv_storage>
<cascade>
  <stageType>BOOST</stageType>
  <featureType>HAAR</featureType>
  <height>20</height>
  <width>20</width>
  <stageParams>
    <boostType>GAB</boostType>
    <minHitRate>9.9500000476837158e-01</minHitRate>
    <maxFalseAlarm>5.0000000000000000e-01</maxFalseAlarm>
    <weightTrimRate>9.4999999999999996e-01</weightTrimRate>
    <maxDepth>1</maxDepth>
    <maxWeakCount>100</maxWeakCount></stageParams>
  <featureParams>
    <maxCatCount>0</maxCatCount>
    <featSize>1</featSize>
    <mode>BASIC</mode></featureParams>
  <stageNum>8</stageNum>
  <stages>
    <!-- stage 0 -->
    <_>
      <maxWeakCount>3</maxWeakCount>
      <stageThreshold>-7.7008396387100220e-01</stageThreshold>
      <weakClassifiers>
        <_>
          <internalNodes>
            0 -1 9 3.0001796782016754e-02</internalNodes>
          <leafValues>
            -8.9125293493270874e-01 7.9035639762878418e-01</leafValues></_>
        <_>
          <internalNodes>
            0 -1 25 9.1895628720521927e-03</internalNodes>
          <leafValues>
            -7.6229876279830933e-01 7.1691316366195679e-01</leafValues></_>
        <_>
          <internalNodes>
            0 -1 2 1.3521558046340942e-01</internalNodes>
          <leafValues>
            -6.5863454341888428e-01 8.8346773386001587e-01</leafValues></_></weakClassifiers></_>
    <!-- stage 1 -->
    <_>
      <maxWeakCount>4</maxWeakCount>
      <stageThreshold>-5.5203717947006226e-01</stageThreshold>
      <weakClassifiers>
        <_>
          <internalNodes>
            0 -1 12 -3.6065034568309784e-02</internalNodes>
          <leafValues>
            7.3814898729324341e-01 -7.1553611755371094e-01</leafValues></_>
        <_>
          <internalNodes>
            0 -1 26 7.7475430443882942e-03</internalNodes>
          <leafValues>
            -7.7296590805053711e-01 5.2739244699478149e-01</leafValues></_>
        <_>
          <internalNodes>
            0 -1 39 2.2137798368930817e-02</internalNodes>
          <leafValues>
            -8.8659954071044922e-01 4.2164495587348938e-01</leafValues></_>
        <_>
          <internalNodes>
            0 -1 21 1.6322206705808640e-02</internalNodes>
          <leafValues>
            -6.5727984905242920e-01 5.2270597219467163e-01</leafValues></_></weakClassifiers></_>
    <!-- stage 2 -->
    <_>
      <maxWeakCount>5</maxWeakCount>
      <stageThreshold>-7.9953867197036743e-01</stageThreshold>
      <weakClassifiers>
        <_>
          <internalNodes>
            0 -1 17 1.3802338391542435e-02</internalNodes>
          <leafValues>
            -7.3563218116760254e-01 4.6376812458038330e-01</leafValues></_>
        <_>
          <internalNodes>
            0 -1 38 1.7710857093334198e-02</internalNodes>
          <leafValues>
            -6.8771630525588989e-01 4.9581369757652283e-01</leafValues></_>
        <_>
          <internalNodes>
            0 -1 5 1.1734619736671448e-02</internalNodes>
          <leafValues>
            -6.4057755470275879e-01 4.8555889725685120e-01</leafValues></_>
        <_>
          <internalNodes>
            0 -1 6 4.7352105379104614e-02</internalNodes>
          <leafValues>
            -3.8215368986129761e-01 7.1106177568435669e-01</leafValues></_>
        <_>
          <internalNodes>
            0 -1 33 -3.2177963294088840e-03</internalNodes>
          <leafValues>
            5.6548303365707397e-01 -5.7281088829040527e-01</leafValues></_></weakClassifiers></_>
    <!-- stage 3 -->
    <_>
      <maxWeakCount>6</maxWeakCount>
      <stageThreshold>-1.3679262399673462e+00</stageThreshold>
      <weakClassifiers>
        <_>
          <internalNodes>
            0 -1 3 -3.1525347381830215e-02</internalNodes>
          <leafValues>
            5.2915763854980469e-01 -5.6064075231552124e-01</leafValues></_>
        <_>
          <internalNodes>
            0 -1 42 1.5063134022057056e-02</internalNodes>
          <leafValues>
            -8.2731205224990845e-01 3.5865911841392517e-01</leafValues></_>
        <_>
          <internalNodes>
            0 -1 16 -1.7889596521854401e-02</internalNodes>
          <leafValues>
            4.6969363093376160e-01 -5.7381039857864380e-01</leafValues></_>
        <_>
          <internalNodes>
            0 -1 4 2.6259893551468849e-02</internalNodes>
          <leafValues>
            -4.8135700821876526e-01 5.7859933376312256e-01</leafValues></_>
        <_>
          <internalNodes>
            0 -1 23 -6.9846659898757935e-03</internalNodes>
          <leafValues>
            3.4858357906341553e-01 -7.2021907567977905e-01</leafValues></_>
        <_>
          <internalNodes>
            0 -1 37 -1.2989843264222145e-02</internalNodes>
          <leafValues>
            5.2125149965286255e-01 -4.5936080813407898e-01</leafValues></_></weakClassifiers></_>
    <!-- stage 4 -->
    <_>
      <maxWeakCount>6</maxWeakCount>
      <stageThreshold>-1.6509468555450439e+00</stageThreshold>
      <weakClassifiers>
        <_>
          <internalNodes>
            0 -1 40 -1.0806128382682800e-02</internalNodes>
          <leafValues>
            5.2572709321975708e-01 -5.1876378059387207e-01</leafValues></_>
        <_>
          <internalNodes>
            0 -1 28 6.1981277540326118e-03</internalNodes>
          <leafValues>
            -5.9243255853652954e-01 4.8380240797996521e-01</leafValues></_>
        <_>
          <internalNodes>
            0 -1 10 -2.2971378639340401e-03</internalNodes>
          <leafValues>
            3.2044860720634460e-01 -7.4182194471359253e-01</leafValues></_>
        <_>
          <internalNodes>
            0 -1 22 -4.1637785732746124e-02</internalNodes>
          <leafValues>
            3.8637915253639221e-01 -6.2154871225357056e-01</leafValues></_>
        <_>
          <internalNodes>
            0 -1 44 -1.5353318303823471e-02</internalNodes>
          <leafValues>
            5.9333580732345581e-01 -4.7683605551719666e-01</leafValues></_>
        <_>
          <internalNodes>
            0 -1 13 3.6515262909233570e-03</internalNodes>
          <leafValues>
            -8.4600412845611572e-01 2.2422125935554504e-01</leafValues></_></weakClassifiers></_>
    <!-- stage 5 -->
    <_>
      <maxWeakCount>7</maxWeakCount>
      <stageThreshold>-8.3271920680999756e-01</stageThreshold>
      <weakClassifiers>
        <_>
          <internalNodes>
            0 -1 29 3.7972698919475079e-03</internalNodes>
          <leafValues>
            3.3333334326744080e-01 -7.6556777954101562e-01</leafValues></_>
        <_>
          <internalNodes>
            0 -1 41 1.0638421401381493e-02</internalNodes>
          <leafValues>
            -7.1769529581069946e-01 2.9301086068153381e-01</leafValues></_>
        <_>
          <internalNodes>
            0 -1 0 9.2462450265884399e-02</internalNodes>
          <leafValues>
            -3.5796999931335449e-01 6.3764804601669312e-01</leafValues></_>
        <_>
          <internalNodes>
            0 -1 32 5.4371915757656097e-03</internalNodes>
          <leafValues>
            -3.0705219507217407e-01 6.3603055477142334e-01</leafValues></_>
        <_>
          <internalNodes>
            0 -1 45 -2.0178366452455521e-02</internalNodes>
          <leafValues>
            6.1210864782333374e-01 -3.3110457658767700e-01</leafValues></_>
        <_>
          <internalNodes>
            0 -1 31 2.3489068262279034e-03</internalNodes>
          <leafValues>
            -5.5501568317413330e-01 4.1013139486312866e-01</leafValues></_>
        <_>
          <internalNodes>
            0 -1 8 2.2516690194606781e-02</internalNodes>
          <leafValues>
            -9.3786114454269409e-01 2.6298549771308899e-01</leafValues></_></weakClassifiers></_>
    <!-- stage 6 -->
    <_>
      <maxWeakCount>6</maxWeakCount>
      <stageThreshold>-1.4430620670318604e+00</stageThreshold>
      <weakClassifiers>
        <_>
          <internalNodes>
            0 -1 36 -3.6586835980415344e-02</internalNodes>
          <leafValues>
            4.6450304985046387e-01 -5.6265354156494141e-01</leafValues></_>
        <_>
          <internalNodes>
            0 -1 43 -7.7221812680363655e-03</internalNodes>
          <leafValues>
            3.5810691118240356e-01 -5.8724671602249146e-01</leafValues></_>
        <_>
          <internalNodes>
            0 -1 30 6.7099124193191528e-02</internalNodes>
          <leafValues>
            2.1527238190174103e-01 -9.3977558612823486e-01</leafValues></_>
        <_>
          <internalNodes>
            0 -1 11 4.6221138909459114e-03</internalNodes>
          <leafValues>
            -3.7556153535842896e-01 5.7839661836624146e-01</leafValues></_>
        <_>
          <internalNodes>
            0 -1 34 -1.6370522789657116e-03</internalNodes>
          <leafValues>
            3.2788470387458801e-01 -6.5588337182998657e-01</leafValues></_>
        <_>
          <internalNodes>
            0 -1 15 -3.9869174361228943e-02</internalNodes>
          <leafValues>
            4.5034632086753845e-01 -5.0414592027664185e-01</leafValues></_></weakClassifiers></_>
    <!-- stage 7 -->
    <_>
      <maxWeakCount>9</maxWeakCount>
      <stageThreshold>-9.1214799880981445e-01</stageThreshold>
      <weakClassifiers>
        <_>
          <internalNodes>
            0 -1 7 -1.4030026271939278e-02</internalNodes>
          <leafValues>
            3.4125638008117676e-01 -6.4630222320556641e-01</leafValues></_>
        <_>
          <internalNodes>
            0 -1 1 5.7566683739423752e-02</internalNodes>
          <leafValues>
            -3.7757775187492371e-01 5.5794727802276611e-01</leafValues></_>
        <_>
          <internalNodes>
            0 -1 18 4.4155083596706390e-03</internalNodes>
          <leafValues>
            -6.9240117073059082e-01 3.4922572970390320e-01</leafValues></_>
        <_>
          <internalNodes>
            0 -1 35 1.1723993346095085e-02</internalNodes>
          <leafValues>
            -6.1516630649566650e-01 3.2543894648551941e-01</leafValues></_>
        <_>
          <internalNodes>
            0 -1 20 1.9587190821766853e-02</internalNodes>
          <leafValues>
            -3.5912886261940002e-01 4.9756732583045959e-01</leafValues></_>
        <_>
          <internalNodes>
            0 -1 24 1.0446539148688316e-02</internalNodes>
          <leafValues>
            -7.8325682878494263e-01 2.0262072980403900e-01</leafValues></_>
        <_>
          <internalNodes>
            0 -1 14 -1.7204314935952425e-03</internalNodes>
          <leafValues>
            2.9384627938270569e-01 -5.2280831336975098e-01</leafValues></_>
        <_>
          <internalNodes>
            0 -1 19 2.4107482749968767e-04</internalNodes>
          <leafValues>
            -8.4413433074951172e-01 1.8747696280479431e-01</leafValues></_>
        <_>
          <internalNodes>
            0 -1 27 -2.7837808011099696e-04</internalNodes>
          <leafValues>
            2.2777257859706879e-01 -6.6086637973785400e-01</leafValues></_></weakClassifiers></_></stages>
  <features>
    <_>
      <rects>
        <_>
          0 2 6 15 -1.</_>
        <_>
          3 2 3 15 2.</_></rects>
      <tilted>0</tilted></_>
    <_>
      <rects>
        <_>
          0 11 8 9 -1.</_>
        <_>
          4 11 4 9 2.</_></rects>
      <tilted>0</tilted></_>
    <_>
      <rects>
        <_>
          1 0 18 5 -1.</_>
        <_>
          7 0 6 5 3.</_></rects>
      <tilted>0</tilted></_>
    <_>
      <rects>
        <_>
          1 1 8 8 -1.</_>
        <_>
          1 1 4 4 2.</_>
        <_>
          5 5 4 4 2.</_></rects>
      <tilted>0</tilted></_>
    <_>
      <rects>
        <_>
          1 2 4 16 -1.</_>
        <_>
          3 2 2 16 2.</_></rects>
      <tilted>0</tilted></_>
    <_>
      <rects>
        <_>
          1 2 6 3 -1.</_>
        <_>
          4 2 3 3 2.</_></rects>
      <tilted>0</tilted></_>
    <_>
      <rects>
        <_>
          1 18 18 2 -1.</_>
        <_>
          7 18 6 2 3.</_></rects>
      <tilted>0</tilted></_>
    <_>
      <rects>
        <_>
          2 1 6 8 -1.</_>
        <_>
          2 1 3 4 2.</_>
        <_>
          5 5 3 4 2.</_></rects>
      <tilted>0</tilted></_>
    <_>
      <rects>
        <_>
          3 6 8 9 -1.</_>
        <_>
          3 9 8 3 3.</_></rects>
      <tilted>0</tilted></_>
    <_>
      <rects>
        <_>
          3 7 13 4 -1.</_>
        <_>
          3 9 13 2 2.</_></rects>
      <tilted>0</tilted></_>
    <_>
      <rects>
        <_>
          3 10 6 4 -1.</_>
        <_>
          3 12 6 2 2.</_></rects>
      <tilted>0</tilted></_>
    <_>
      <rects>
        <_>
          3 19 6 1 -1.</_>
        <_>
          6 19 3 1 2.</_></rects>
      <tilted>0</tilted></_>
    <_>
      <rects>
        <_>
          4 4 11 4 -1.</_>
        <_>
          4 6 11 2 2.</_></rects>
      <tilted>0</tilted></_>
    <_>
      <rects>
        <_>
          4 6 4 8 -1.</_>
        <_>
          4 10 4 4 2.</_></rects>
      <tilted>0</tilted></_>
    <_>
      <rects>
        <_>
          4 12 12 2 -1.</_>
        <_>
          8 12 4 2 3.</_></rects>
      <tilted>0</tilted></_>
    <_>
      <rects>
        <_>
          5 4 9 4 -1.</_>
        <_>
          5 6 9 2 2.</_></rects>
      <tilted>0</tilted></_>
    <_>
      <rects>
        <_>
          5 5 6 10 -1.</_>
        <_>
          5 5 3 5 2.</_>
        <_>
          8 10 3 5 2.</_></rects>
      <tilted>0</tilted></_>
    <_>
      <rects>
        <_>
          5 6 2 9 -1.</_>
        <_>
          5 9 2 3 3.</_></rects>
      <tilted>0</tilted></_>
    <_>
      <rects>
        <_>
          5 7 6 2 -1.</_>
        <_>
          8 7 3 2 2.</_></rects>
      <tilted>0</tilted></_>
    <_>
      <rects>
        <_>
          5 7 7 6 -1.</_>
        <_>
          5 10 7 3 2.</_></rects>
      <tilted>0</tilted></_>
    <_>
      <rects>
        <_>
          5 18 12 2 -1.</_>
        <_>
          9 18 4 2 3.</_></rects>
      <tilted>0</tilted></_>
    <_>
      <rects>
        <_>
          6 1 7 6 -1.</_>
        <_>
          6 3 7 2 3.</_></rects>
      <tilted>0</tilted></_>
    <_>
      <rects>
        <_>
          6 3 9 6 -1.</_>
        <_>
          6 6 9 3 2.</_></rects>
      <tilted>0</tilted></_>
    <_>
      <rects>
        <_>
          6 6 12 3 -1.</_>
        <_>
          6 7 12 1 3.</_></rects>
      <tilted>0</tilted></_>
    <_>
      <rects>
        <_>
          6 6 13 4 -1.</_>
        <_>
          6 8 13 2 2.</_></rects>
      <tilted>0</tilted></_>
    <_>
      <rects>
        <_>
          7 5 6 3 -1.</_>
        <_>
          9 5 2 3 3.</_></rects>
      <tilted>0</tilted></_>
    <_>
      <rects>
        <_>
          7 5 6 4 -1.</_>
        <_>
          9 5 2 4 3.</_></rects>
      <tilted>0</tilted></_>
    <_>
      <rects>
        <_>
          7 6 8 3 -1.</_>
        <_>
          11 6 4 3 2.</_></rects>
      <tilted>0</tilted></_>
    <_>
      <rects>
        <_>
          7 7 6 1 -1.</_>
        <_>
          9 7 2 1 3.</_></rects>
      <tilted>0</tilted></_>
    <_>
      <rects>
        <_>
          8 3 4 14 -1.</_>
        <_>
          8 10 4 7 2.</_></rects>
      <tilted>0</tilted></_>
    <_>
      <rects>
        <_>
          8 4 7 12 -1.</_>
        <_>
          8 10 7 6 2.</_></rects>
      <tilted>0</tilted></_>
    <_>
      <rects>
        <_>
          8 6 2 3 -1.</_>
        <_>
          9 6 1 3 2.</_></rects>
      <tilted>0</tilted></_>
    <_>
      <rects>
        <_>
          8 13 4 3 -1.</_>
        <_>
          8 14 4 1 3.</_></rects>
      <tilted>0</tilted></_>
    <_>
      <rects>
        <_>
          9 7 4 1 -1.</_>
        <_>
          11 7 2 1 2.</_></rects>
      <tilted>0</tilted></_>
    <_>
      <rects>
        <_>
          10 5 2 3 -1.</_>
        <_>
          11 5 1 3 2.</_></rects>
      <tilted>0</tilted></_>
    <_>
      <rects>
        <_>
          11 0 4 9 -1.</_>
        <_>
          11 3 4 3 3.</_></rects>
      <tilted>0</tilted></_>
    <_>
      <rects>
        <_>
          11 0 8 5 -1.</_>
        <_>
          15 0 4 5 2.</_></rects>
      <tilted>0</tilted></_>
    <_>
      <rects>
        <_>
          11 14 6 6 -1.</_>
        <_>
          11 14 3 3 2.</_>
        <_>
          14 17 3 3 2.</_></rects>
      <tilted>0</tilted></_>
    <_>
      <rects>
        <_>
          12 1 6 8 -1.</_>
        <_>
          12 1 3 4 2.</_>
        <_>
          15 5 3 4 2.</_></rects>
      <tilted>0</tilted></_>
    <_>
      <rects>
        <_>
          12 4 4 15 -1.</_>
        <_>
          12 9 4 5 3.</_></rects>
      <tilted>0</tilted></_>
    <_>
      <rects>
        <_>
          13 3 6 2 -1.</_>
        <_>
          16 3 3 2 2.</_></rects>
      <tilted>0</tilted></_>
    <_>
      <rects>
        <_>
          13 6 2 6 -1.</_>
        <_>
          13 9 2 3 2.</_></rects>
      <tilted>0</tilted></_>
    <_>
      <rects>
        <_>
          13 6 5 9 -1.</_>
        <_>
          13 9 5 3 3.</_></rects>
      <tilted>0</tilted></_>
    <_>
      <rects>
        <_>
          13 7 6 4 -1.</_>
        <_>
          13 7 3 2 2.</_>
        <_>
          16 9 3 2 2.</_></rects>
      <tilted>0</tilted></_>
    <_>
      <rects>
        <_>
          14 10 6 3 -1.</_>
        <_>
          17 10 3 3 2.</_></rects>
      <tilted>0</tilted></_>
    <_>
      <rects>
        <_>
          16 3 4 7 -1.</_>
        <_>
          18 3 2 7 2.</_></rects>
      <tilted>0</tilted></_></features></cascade>
</opencv_storage>
